digraph Tree {
node [shape=box, style="filled, rounded", color="black", fontname=helvetica] ;
edge [fontname=helvetica] ;
0 [label="X[3] <= 47.2935\ngini = 0.7493\nsamples = 191\nvalue = [50, 50, 47, 44]\nclass = Bas", fillcolor="#e5813900"] ;
1 [label="X[5] <= 116.8232\ngini = 0.4612\nsamples = 23\nvalue = [5, 0, 16, 2]\nclass = Gauche", fillcolor="#399de59c"] ;
0 -> 1 [labeldistance=2.5, labelangle=45, headlabel="True"] ;
2 [label="X[5] <= 115.5152\ngini = 0.3045\nsamples = 17\nvalue = [2, 0, 14, 1]\nclass = Gauche", fillcolor="#399de5cc"] ;
1 -> 2 ;
3 [label="X[3] <= 33.2133\ngini = 0.5313\nsamples = 8\nvalue = [2, 0, 5, 1]\nclass = Gauche", fillcolor="#399de580"] ;
2 -> 3 ;
4 [label="gini = 0.4444\nsamples = 3\nvalue = [2, 0, 1, 0]\nclass = Bas", fillcolor="#e581397f"] ;
3 -> 4 ;
5 [label="X[5] <= 111.1429\ngini = 0.32\nsamples = 5\nvalue = [0, 0, 4, 1]\nclass = Gauche", fillcolor="#399de5bf"] ;
3 -> 5 ;
6 [label="gini = 0.5\nsamples = 2\nvalue = [0, 0, 1, 1]\nclass = Gauche", fillcolor="#399de500"] ;
5 -> 6 ;
7 [label="gini = 0.0\nsamples = 3\nvalue = [0, 0, 3, 0]\nclass = Gauche", fillcolor="#399de5ff"] ;
5 -> 7 ;
8 [label="gini = 0.0\nsamples = 9\nvalue = [0, 0, 9, 0]\nclass = Gauche", fillcolor="#399de5ff"] ;
2 -> 8 ;
9 [label="X[3] <= 41.3099\ngini = 0.6111\nsamples = 6\nvalue = [3, 0, 2, 1]\nclass = Bas", fillcolor="#e5813940"] ;
1 -> 9 ;
10 [label="gini = 0.4444\nsamples = 3\nvalue = [0, 0, 2, 1]\nclass = Gauche", fillcolor="#399de57f"] ;
9 -> 10 ;
11 [label="gini = 0.0\nsamples = 3\nvalue = [3, 0, 0, 0]\nclass = Bas", fillcolor="#e58139ff"] ;
9 -> 11 ;
12 [label="X[0] <= 5.343\ngini = 0.7431\nsamples = 168\nvalue = [45, 50, 31, 42]\nclass = Droite", fillcolor="#47e5390a"] ;
0 -> 12 [labeldistance=2.5, labelangle=-45, headlabel="False"] ;
13 [label="X[3] <= 132.4876\ngini = 0.7385\nsamples = 114\nvalue = [39, 24, 25, 26]\nclass = Bas", fillcolor="#e5813926"] ;
12 -> 13 ;
14 [label="X[6] <= 21.7837\ngini = 0.7259\nsamples = 102\nvalue = [38, 16, 24, 24]\nclass = Bas", fillcolor="#e581392e"] ;
13 -> 14 ;
15 [label="X[5] <= 25.8481\ngini = 0.314\nsamples = 11\nvalue = [9, 1, 0, 1]\nclass = Bas", fillcolor="#e58139cc"] ;
14 -> 15 ;
16 [label="X[5] <= 24.7939\ngini = 0.625\nsamples = 4\nvalue = [2, 1, 0, 1]\nclass = Bas", fillcolor="#e5813955"] ;
15 -> 16 ;
17 [label="gini = 0.0\nsamples = 2\nvalue = [2, 0, 0, 0]\nclass = Bas", fillcolor="#e58139ff"] ;
16 -> 17 ;
18 [label="gini = 0.5\nsamples = 2\nvalue = [0, 1, 0, 1]\nclass = Droite", fillcolor="#47e53900"] ;
16 -> 18 ;
19 [label="gini = 0.0\nsamples = 7\nvalue = [7, 0, 0, 0]\nclass = Bas", fillcolor="#e58139ff"] ;
15 -> 19 ;
20 [label="X[3] <= 60.0696\ngini = 0.7378\nsamples = 91\nvalue = [29, 15, 24, 23]\nclass = Bas", fillcolor="#e5813913"] ;
14 -> 20 ;
21 [label="X[5] <= 114.4867\ngini = 0.4063\nsamples = 8\nvalue = [1, 1, 0, 6]\nclass = Haut", fillcolor="#d739e5b6"] ;
20 -> 21 ;
22 [label="gini = 0.0\nsamples = 6\nvalue = [0, 0, 0, 6]\nclass = Haut", fillcolor="#d739e5ff"] ;
21 -> 22 ;
23 [label="gini = 0.5\nsamples = 2\nvalue = [1, 1, 0, 0]\nclass = Bas", fillcolor="#e5813900"] ;
21 -> 23 ;
24 [label="X[3] <= 86.4835\ngini = 0.7322\nsamples = 83\nvalue = [28, 14, 24, 17]\nclass = Bas", fillcolor="#e5813911"] ;
20 -> 24 ;
25 [label="X[0] <= 1.8243\ngini = 0.6163\nsamples = 41\nvalue = [20, 4, 15, 2]\nclass = Bas", fillcolor="#e5813931"] ;
24 -> 25 ;
26 [label="X[6] <= 70.0116\ngini = 0.7111\nsamples = 15\nvalue = [3, 4, 6, 2]\nclass = Gauche", fillcolor="#399de52e"] ;
25 -> 26 ;
27 [label="X[6] <= 66.5849\ngini = 0.56\nsamples = 5\nvalue = [1, 3, 1, 0]\nclass = Droite", fillcolor="#47e5397f"] ;
26 -> 27 ;
28 [label="gini = 0.5\nsamples = 2\nvalue = [1, 0, 1, 0]\nclass = Bas", fillcolor="#e5813900"] ;
27 -> 28 ;
29 [label="gini = 0.0\nsamples = 3\nvalue = [0, 3, 0, 0]\nclass = Droite", fillcolor="#47e539ff"] ;
27 -> 29 ;
30 [label="X[5] <= 88.0003\ngini = 0.66\nsamples = 10\nvalue = [2, 1, 5, 2]\nclass = Gauche", fillcolor="#399de560"] ;
26 -> 30 ;
31 [label="X[0] <= 1.2515\ngini = 0.4444\nsamples = 6\nvalue = [0, 0, 4, 2]\nclass = Gauche", fillcolor="#399de57f"] ;
30 -> 31 ;
32 [label="gini = 0.0\nsamples = 2\nvalue = [0, 0, 2, 0]\nclass = Gauche", fillcolor="#399de5ff"] ;
31 -> 32 ;
33 [label="gini = 0.5\nsamples = 4\nvalue = [0, 0, 2, 2]\nclass = Gauche", fillcolor="#399de500"] ;
31 -> 33 ;
34 [label="X[5] <= 99.8627\ngini = 0.625\nsamples = 4\nvalue = [2, 1, 1, 0]\nclass = Bas", fillcolor="#e5813955"] ;
30 -> 34 ;
35 [label="gini = 0.5\nsamples = 2\nvalue = [1, 1, 0, 0]\nclass = Bas", fillcolor="#e5813900"] ;
34 -> 35 ;
36 [label="gini = 0.5\nsamples = 2\nvalue = [1, 0, 1, 0]\nclass = Bas", fillcolor="#e5813900"] ;
34 -> 36 ;
37 [label="X[0] <= 3.1372\ngini = 0.4527\nsamples = 26\nvalue = [17, 0, 9, 0]\nclass = Bas", fillcolor="#e5813978"] ;
25 -> 37 ;
38 [label="X[5] <= 83.5721\ngini = 0.3047\nsamples = 16\nvalue = [13, 0, 3, 0]\nclass = Bas", fillcolor="#e58139c4"] ;
37 -> 38 ;
39 [label="X[4] <= 0.5\ngini = 0.4444\nsamples = 9\nvalue = [6, 0, 3, 0]\nclass = Bas", fillcolor="#e581397f"] ;
38 -> 39 ;
40 [label="gini = 0.4444\nsamples = 3\nvalue = [1, 0, 2, 0]\nclass = Gauche", fillcolor="#399de57f"] ;
39 -> 40 ;
41 [label="gini = 0.2778\nsamples = 6\nvalue = [5, 0, 1, 0]\nclass = Bas", fillcolor="#e58139cc"] ;
39 -> 41 ;
42 [label="gini = 0.0\nsamples = 7\nvalue = [7, 0, 0, 0]\nclass = Bas", fillcolor="#e58139ff"] ;
38 -> 42 ;
43 [label="X[0] <= 4.8334\ngini = 0.48\nsamples = 10\nvalue = [4, 0, 6, 0]\nclass = Gauche", fillcolor="#399de555"] ;
37 -> 43 ;
44 [label="X[0] <= 3.3513\ngini = 0.375\nsamples = 8\nvalue = [2, 0, 6, 0]\nclass = Gauche", fillcolor="#399de5aa"] ;
43 -> 44 ;
45 [label="gini = 0.0\nsamples = 3\nvalue = [0, 0, 3, 0]\nclass = Gauche", fillcolor="#399de5ff"] ;
44 -> 45 ;
46 [label="gini = 0.48\nsamples = 5\nvalue = [2, 0, 3, 0]\nclass = Gauche", fillcolor="#399de555"] ;
44 -> 46 ;
47 [label="gini = 0.0\nsamples = 2\nvalue = [2, 0, 0, 0]\nclass = Bas", fillcolor="#e58139ff"] ;
43 -> 47 ;
48 [label="X[5] <= 30.2047\ngini = 0.7336\nsamples = 42\nvalue = [8, 10, 9, 15]\nclass = Haut", fillcolor="#d739e528"] ;
24 -> 48 ;
49 [label="gini = 0.0\nsamples = 2\nvalue = [0, 0, 0, 2]\nclass = Haut", fillcolor="#d739e5ff"] ;
48 -> 49 ;
50 [label="X[6] <= 63.0794\ngini = 0.7412\nsamples = 40\nvalue = [8, 10, 9, 13]\nclass = Haut", fillcolor="#d739e51a"] ;
48 -> 50 ;
51 [label="X[5] <= 55.6904\ngini = 0.7491\nsamples = 34\nvalue = [8, 9, 8, 9]\nclass = Droite", fillcolor="#47e53900"] ;
50 -> 51 ;
52 [label="X[5] <= 42.3409\ngini = 0.7423\nsamples = 28\nvalue = [6, 6, 7, 9]\nclass = Haut", fillcolor="#d739e518"] ;
51 -> 52 ;
53 [label="gini = 0.7188\nsamples = 16\nvalue = [2, 6, 4, 4]\nclass = Droite", fillcolor="#47e5392a"] ;
52 -> 53 ;
54 [label="gini = 0.6528\nsamples = 12\nvalue = [4, 0, 3, 5]\nclass = Haut", fillcolor="#d739e520"] ;
52 -> 54 ;
55 [label="X[0] <= 2.8571\ngini = 0.6111\nsamples = 6\nvalue = [2, 3, 1, 0]\nclass = Droite", fillcolor="#47e53940"] ;
51 -> 55 ;
56 [label="gini = 0.5\nsamples = 2\nvalue = [1, 0, 1, 0]\nclass = Bas", fillcolor="#e5813900"] ;
55 -> 56 ;
57 [label="gini = 0.375\nsamples = 4\nvalue = [1, 3, 0, 0]\nclass = Droite", fillcolor="#47e539aa"] ;
55 -> 57 ;
58 [label="X[6] <= 71.3974\ngini = 0.5\nsamples = 6\nvalue = [0, 1, 1, 4]\nclass = Haut", fillcolor="#d739e599"] ;
50 -> 58 ;
59 [label="gini = 0.0\nsamples = 4\nvalue = [0, 0, 0, 4]\nclass = Haut", fillcolor="#d739e5ff"] ;
58 -> 59 ;
60 [label="gini = 0.5\nsamples = 2\nvalue = [0, 1, 1, 0]\nclass = Droite", fillcolor="#47e53900"] ;
58 -> 60 ;
61 [label="X[5] <= 42.2256\ngini = 0.5139\nsamples = 12\nvalue = [1, 8, 1, 2]\nclass = Droite", fillcolor="#47e53999"] ;
13 -> 61 ;
62 [label="X[5] <= 41.979\ngini = 0.6939\nsamples = 7\nvalue = [1, 3, 1, 2]\nclass = Droite", fillcolor="#47e53933"] ;
61 -> 62 ;
63 [label="X[0] <= 3.1213\ngini = 0.64\nsamples = 5\nvalue = [0, 2, 1, 2]\nclass = Droite", fillcolor="#47e53900"] ;
62 -> 63 ;
64 [label="gini = 0.5\nsamples = 2\nvalue = [0, 1, 0, 1]\nclass = Droite", fillcolor="#47e53900"] ;
63 -> 64 ;
65 [label="gini = 0.6667\nsamples = 3\nvalue = [0, 1, 1, 1]\nclass = Droite", fillcolor="#47e53900"] ;
63 -> 65 ;
66 [label="gini = 0.5\nsamples = 2\nvalue = [1, 1, 0, 0]\nclass = Bas", fillcolor="#e5813900"] ;
62 -> 66 ;
67 [label="gini = 0.0\nsamples = 5\nvalue = [0, 5, 0, 0]\nclass = Droite", fillcolor="#47e539ff"] ;
61 -> 67 ;
68 [label="X[0] <= 45.0779\ngini = 0.6557\nsamples = 54\nvalue = [6, 26, 6, 16]\nclass = Droite", fillcolor="#47e53943"] ;
12 -> 68 ;
69 [label="X[3] <= 120.6288\ngini = 0.6474\nsamples = 51\nvalue = [6, 26, 6, 13]\nclass = Droite", fillcolor="#47e53957"] ;
68 -> 69 ;
70 [label="X[3] <= 79.4166\ngini = 0.6035\nsamples = 45\nvalue = [5, 25, 3, 12]\nclass = Droite", fillcolor="#47e53964"] ;
69 -> 70 ;
71 [label="X[6] <= 72.0961\ngini = 0.7222\nsamples = 12\nvalue = [4, 4, 2, 2]\nclass = Bas", fillcolor="#e5813900"] ;
70 -> 71 ;
72 [label="gini = 0.0\nsamples = 2\nvalue = [2, 0, 0, 0]\nclass = Bas", fillcolor="#e58139ff"] ;
71 -> 72 ;
73 [label="X[0] <= 7.2832\ngini = 0.72\nsamples = 10\nvalue = [2, 4, 2, 2]\nclass = Droite", fillcolor="#47e53940"] ;
71 -> 73 ;
74 [label="gini = 0.0\nsamples = 2\nvalue = [0, 2, 0, 0]\nclass = Droite", fillcolor="#47e539ff"] ;
73 -> 74 ;
75 [label="X[3] <= 56.2665\ngini = 0.75\nsamples = 8\nvalue = [2, 2, 2, 2]\nclass = Bas", fillcolor="#e5813900"] ;
73 -> 75 ;
76 [label="X[5] <= 91.4765\ngini = 0.625\nsamples = 4\nvalue = [1, 0, 2, 1]\nclass = Gauche", fillcolor="#399de555"] ;
75 -> 76 ;
77 [label="gini = 0.5\nsamples = 2\nvalue = [1, 0, 1, 0]\nclass = Bas", fillcolor="#e5813900"] ;
76 -> 77 ;
78 [label="gini = 0.5\nsamples = 2\nvalue = [0, 0, 1, 1]\nclass = Gauche", fillcolor="#399de500"] ;
76 -> 78 ;
79 [label="X[0] <= 9.9082\ngini = 0.625\nsamples = 4\nvalue = [1, 2, 0, 1]\nclass = Droite", fillcolor="#47e53955"] ;
75 -> 79 ;
80 [label="gini = 0.5\nsamples = 2\nvalue = [1, 0, 0, 1]\nclass = Bas", fillcolor="#e5813900"] ;
79 -> 80 ;
81 [label="gini = 0.0\nsamples = 2\nvalue = [0, 2, 0, 0]\nclass = Droite", fillcolor="#47e539ff"] ;
79 -> 81 ;
82 [label="X[5] <= 40.3724\ngini = 0.5014\nsamples = 33\nvalue = [1, 21, 1, 10]\nclass = Droite", fillcolor="#47e5397a"] ;
70 -> 82 ;
83 [label="gini = 0.5\nsamples = 2\nvalue = [0, 0, 1, 1]\nclass = Gauche", fillcolor="#399de500"] ;
82 -> 83 ;
84 [label="X[3] <= 94.2857\ngini = 0.4558\nsamples = 31\nvalue = [1, 21, 0, 9]\nclass = Droite", fillcolor="#47e5398b"] ;
82 -> 84 ;
85 [label="X[5] <= 76.3288\ngini = 0.3571\nsamples = 14\nvalue = [1, 11, 0, 2]\nclass = Droite", fillcolor="#47e539bf"] ;
84 -> 85 ;
86 [label="X[3] <= 88.57\ngini = 0.18\nsamples = 10\nvalue = [1, 9, 0, 0]\nclass = Droite", fillcolor="#47e539e3"] ;
85 -> 86 ;
87 [label="X[0] <= 7.773\ngini = 0.375\nsamples = 4\nvalue = [1, 3, 0, 0]\nclass = Droite", fillcolor="#47e539aa"] ;
86 -> 87 ;
88 [label="gini = 0.0\nsamples = 2\nvalue = [0, 2, 0, 0]\nclass = Droite", fillcolor="#47e539ff"] ;
87 -> 88 ;
89 [label="gini = 0.5\nsamples = 2\nvalue = [1, 1, 0, 0]\nclass = Bas", fillcolor="#e5813900"] ;
87 -> 89 ;
90 [label="gini = 0.0\nsamples = 6\nvalue = [0, 6, 0, 0]\nclass = Droite", fillcolor="#47e539ff"] ;
86 -> 90 ;
91 [label="X[6] <= 73.4837\ngini = 0.5\nsamples = 4\nvalue = [0, 2, 0, 2]\nclass = Droite", fillcolor="#47e53900"] ;
85 -> 91 ;
92 [label="gini = 0.5\nsamples = 2\nvalue = [0, 1, 0, 1]\nclass = Droite", fillcolor="#47e53900"] ;
91 -> 92 ;
93 [label="gini = 0.5\nsamples = 2\nvalue = [0, 1, 0, 1]\nclass = Droite", fillcolor="#47e53900"] ;
91 -> 93 ;
94 [label="X[6] <= 33.2071\ngini = 0.4844\nsamples = 17\nvalue = [0, 10, 0, 7]\nclass = Droite", fillcolor="#47e5394d"] ;
84 -> 94 ;
95 [label="gini = 0.0\nsamples = 4\nvalue = [0, 4, 0, 0]\nclass = Droite", fillcolor="#47e539ff"] ;
94 -> 95 ;
96 [label="X[0] <= 7.4523\ngini = 0.497\nsamples = 13\nvalue = [0, 6, 0, 7]\nclass = Haut", fillcolor="#d739e524"] ;
94 -> 96 ;
97 [label="gini = 0.0\nsamples = 2\nvalue = [0, 0, 0, 2]\nclass = Haut", fillcolor="#d739e5ff"] ;
96 -> 97 ;
98 [label="X[3] <= 104.0715\ngini = 0.4959\nsamples = 11\nvalue = [0, 6, 0, 5]\nclass = Droite", fillcolor="#47e5392a"] ;
96 -> 98 ;
99 [label="gini = 0.48\nsamples = 5\nvalue = [0, 2, 0, 3]\nclass = Haut", fillcolor="#d739e555"] ;
98 -> 99 ;
100 [label="gini = 0.4444\nsamples = 6\nvalue = [0, 4, 0, 2]\nclass = Droite", fillcolor="#47e5397f"] ;
98 -> 100 ;
101 [label="X[3] <= 130.4555\ngini = 0.6667\nsamples = 6\nvalue = [1, 1, 3, 1]\nclass = Gauche", fillcolor="#399de566"] ;
69 -> 101 ;
102 [label="gini = 0.0\nsamples = 3\nvalue = [0, 0, 3, 0]\nclass = Gauche", fillcolor="#399de5ff"] ;
101 -> 102 ;
103 [label="gini = 0.6667\nsamples = 3\nvalue = [1, 1, 0, 1]\nclass = Bas", fillcolor="#e5813900"] ;
101 -> 103 ;
104 [label="gini = 0.0\nsamples = 3\nvalue = [0, 0, 0, 3]\nclass = Haut", fillcolor="#d739e5ff"] ;
68 -> 104 ;
}